// Generated weights and quantization parameters for MNIST model
#pragma once
#include <stdint.h>

// Layer 1: Linear(196, 32)
#define L1_INPUT_SIZE 196
#define L1_OUTPUT_SIZE 32

// Layer 1 Weight Quantization Parameters
#define L1_WEIGHT_SCALE 0.01967659f
#define L1_WEIGHT_ZERO_POINT 13

// Layer 1 Bias Quantization Parameters
#define L1_BIAS_SCALE 0.00565703f
#define L1_BIAS_ZERO_POINT -24

// Layer 1 Weights (int8) - Placed in PROGMEM
static const int8_t L1_WEIGHTS_INT8[L1_OUTPUT_SIZE][L1_INPUT_SIZE] = {
    {13, 15, 4, -24, -26, -40, -48, -30, -27, -57, -30, -28, 10, 11, 12, -8, -4, -69, -84, -99, -99, -46, 1, 30, 16, 12, -14, 5, 18, 13, 9, -2, -38, -15, -17, -21, 1, -2, 6, 35, 23, 7, 79, 35, 29, 20, 41, 32, 26, 20, 4, 5, 9, 13, 24, 19, 46, 16, 14, 32, 37, 23, 15, 15, 36, 19, 31, 32, 58, 39, -23, 27, 36, 34, 52, 24, -16, -16, 3, -3, 20, 29, 28, 64, 33, 0, 36, 44, 38, 37, 18, 11, 2, 18, 26, 20, -6, 66, 49, 13, 7, 29, 55, 67, 45, 19, 36, 23, 19, 28, -1, 74, 32, -2, -44, -16, 8, 34, 62, 35, 37, 11, 25, 31, 1, 12, -27, -12, -34, -42, -55, -52, -26, 3, 7, -4, 7, -4, -13, 43, 2, 38, 7, -3, -13, -15, -3, 11, 16, 0, 4, 22, 27, -15, 16, 51, 26, 10, 16, 39, 6, -3, -22, -23, 1, 35, 33, 49, 10, 74, 56, 42, 30, 51, 27, 21, 21, 20, 56, 46, -5, -25, 16, -6, 40, 38, 28, 95, 113, 64, 99, 55, 44, 25, -22, 11},
    {11, 14, 5, -19, -16, 4, 22, -6, -38, -37, -42, -23, 14, 13, 13, -15, 39, 11, -36, 1, -5, 2, -7, -2, 27, 30, 15, 34, 6, -4, -41, 9, 25, 30, 24, 32, 26, 28, 29, 34, 69, 2, -56, -29, 20, 30, 35, 23, 44, 46, 44, 28, 14, 34, 32, 52, -50, 9, 3, 28, 19, 16, 25, 9, 24, 34, 20, 18, 109, 23, -43, -2, 1, 30, 15, -6, 1, -16, 7, 6, 6, 12, 59, 32, 13, 12, 12, 42, 6, 19, 21, 1, 19, 25, 29, 20, -22, -4, 29, 5, 36, 29, 16, 27, 18, 10, 24, 18, 4, 5, -16, -7, -17, 8, 19, 11, 12, 22, 6, 13, 33, 2, 4, 5, -11, -32, -34, 20, 33, 40, 26, 24, 11, 21, 11, -3, 27, 5, -7, -73, 44, 5, 29, 12, 20, 9, 15, 18, 12, 3, 22, 27, 10, -14, -18, 26, -6, 12, 18, 33, 27, 32, 21, 18, 25, 48, 38, 28, 15, 44, 28, 26, 31, 43, 29, 32, 19, 21, 30, 47, -4, -19, 16, 41, 54, 17, -3, 8, 17, 5, 17, -3, 8, -11, -14, 12},
    {11, 11, 5, -9, 3, 3, -20, 37, 36, -46, -25, -21, 14, 10, 16, 35, -10, -6, -32, -18, -1, -73, -76, -61, -76, -48, 7, -3, 13, 9, 22, 20, 13, 21, 19, -8, -28, -13, -5, 3, 43, 44, -21, 25, -26, 15, 18, 6, 24, 25, 17, -37, -8, 20, -5, 12, 42, 9, 44, 20, 16, 25, 26, 52, 16, -20, -39, -7, 1, 56, 55, 31, 51, 41, 33, 29, 13, 37, 37, 17, -48, -18, 5, 23, 15, 60, 28, 8, 18, -2, -3, 32, 51, 44, -16, -14, -6, 3, -19, 75, -28, -16, -2, 2, 25, 19, 42, 10, -23, 11, 38, 33, 44, 46, 0, -15, 0, 24, 30, 36, 20, -18, 1, 0, 2, 48, 72, 25, 1, -44, -27, 24, 28, 23, 7, 12, 11, -16, 3, 49, 26, 1, -35, -26, 3, 25, 19, 24, 14, 7, 16, -12, 29, 46, 34, -20, -13, -22, -4, 5, 22, 22, 10, 17, 21, 14, 14, 9, 9, -15, 10, -31, -46, -27, -17, -3, 4, 20, 25, 16, 16, 39, 13, 42, 14, 34, 48, 20, 5, 23, 19, 31, 38, 31, 36, 14},
    {16, 16, 12, -14, -2, 28, 10, 26, 28, -5, 12, -20, 10, 12, 11, -3, 32, 25, 9, 16, 7, 16, -9, -25, 38, 12, 30, 46, 6, -14, 34, -16, -4, -17, -5, 7, 1, -5, -17, 13, 7, -47, 13, 26, 33, 16, 14, 0, 1, 15, 12, 0, -10, 10, 14, 25, 73, 20, 20, 8, 9, 16, 12, 10, -3, -13, 4, -12, -5, 7, 71, 12, 0, 16, -1, 11, 42, 44, 22, 12, 0, -14, -23, -33, 52, 2, -16, 23, 8, 52, 53, 30, 49, 32, 0, -5, -3, -25, 17, 45, 44, 18, 33, 58, 27, 16, 58, 50, 18, 34, 7, -14, 37, 23, 18, 0, 22, 36, 9, 39, 56, 35, 23, 31, -9, 20, 60, 60, 9, -35, -17, -4, 1, 36, 12, -12, -5, -14, 1, 20, 36, 53, -16, -28, -27, -11, -6, -12, -20, -23, -40, -30, -37, 41, 36, -11, -21, 27, 19, 10, -15, -10, -11, -11, -6, -4, 36, 57, 11, -2, 3, 16, 18, 12, -5, 5, 10, 6, 32, 37, 3, 42, 14, -2, -8, 12, 21, 2, 9, 18, -14, -30, -26, 14, -3, 13},
    {11, 11, 24, 44, 73, 9, 21, -20, 83, 91, 76, 54, 11, 10, 12, 12, 58, 75, 58, 36, 16, 15, 32, 18, 17, 23, -5, 19, 16, 21, 69, 47, 44, 37, 14, -21, -12, -26, -24, -35, -9, -3, 78, 90, 17, 28, 29, 6, 27, 33, 19, -11, -2, -22, 8, 62, 45, 34, 32, 21, 14, 11, 36, 39, -10, 8, 29, 15, 5, 36, 30, 46, 22, 37, 24, -1, 9, -17, 9, 29, 47, 19, -24, -11, 28, -1, 20, 14, -9, -5, -7, 33, 41, 37, 28, 23, -47, -57, -6, 28, -8, 1, 2, 17, 14, 41, 20, 41, 35, 11, -42, -66, 49, 12, -14, 7, 11, 21, 30, 32, 18, 23, 26, 7, -26, 17, 59, 0, 6, -14, -27, 12, 19, 20, 12, 8, 14, -18, -48, 52, -15, 8, 10, 2, 12, 8, 11, 14, 8, -6, -4, -47, 4, -27, -3, 20, 4, 17, 4, 16, 11, 1, -14, -21, -26, -21, -17, -41, 10, 42, 72, 44, 15, 4, 10, 17, 12, -20, 19, -9, 2, -12, 16, 36, 9, 86, 127, 85, 65, 74, 64, 56, 74, 61, 25, 15},
    {12, 9, 15, 44, 31, -15, -16, 29, 16, 68, 63, 70, 14, 12, 15, 42, 74, 31, -20, -11, 6, -19, 16, 21, 37, -2, 47, 51, 24, 53, 26, -15, -43, -1, 7, 8, 10, 19, 29, 48, 33, 29, 8, -1, 5, -39, -12, -19, -9, 21, 32, 26, 25, 27, 45, 72, -38, -13, 24, -6, -4, 12, 8, 28, 19, 1, 13, 20, 62, 0, 28, 34, 19, -10, -14, 4, 24, 38, 9, 1, -24, 9, 32, 16, 25, -3, 7, -1, -13, 12, 29, 45, 16, 3, -16, -51, -56, 37, 53, 8, 6, -6, -14, 5, 52, 6, 0, 14, 31, -40, -59, 10, 47, 17, 35, 5, -43, -8, 3, -3, 25, 36, 12, -39, 5, 29, -30, 28, 26, 36, 11, 3, 4, 34, 51, 34, -35, -35, 18, 17, 32, 7, 22, 22, 28, 27, 26, 18, 40, -19, -55, -16, 1, 45, 19, 5, 23, 10, 26, 40, 26, 19, -35, -54, -22, 28, 25, 24, 15, 57, 40, 7, 18, -12, -6, -40, -51, -47, 14, -3, -18, -3, 11, 44, 48, 1, -14, 8, -26, 21, 59, 34, 22, -6, -6, 13},
    {14, 13, 6, 2, 19, -15, 8, 10, 45, -13, -16, 1, 16, 10, 13, 4, 47, 73, 91, 76, 64, 5, -14, -19, -17, 13, 39, 10, 16, 44, 24, 47, 2, 43, 31, 26, 15, 26, 25, -26, 20, 63, 28, -3, -13, -17, 4, 11, 30, 49, 21, -12, -13, -4, 34, 69, -20, 22, 0, 4, 21, 18, 14, 10, 17, 17, 9, 14, -15, 46, -23, -2, 5, 24, 6, 5, -2, 11, 41, 57, 37, -16, -50, 16, -38, -18, -4, 6, 6, 1, 30, 44, 25, 18, -14, -54, -37, 22, -6, -14, -16, 22, 2, -8, 6, 8, 1, -21, -24, -8, -5, 13, 47, 29, 36, 8, 6, 26, 34, -7, -6, -5, -4, 33, -1, 16, 3, 41, 34, 35, 11, 11, -19, -7, 17, 15, 17, 15, 15, 29, 21, 41, 32, 14, 7, -14, -4, 18, 24, 25, 28, 10, 3, 39, -3, 80, -1, -20, 6, 31, 31, 25, 13, 16, 19, 22, 23, -23, 12, 12, 22, 11, 23, 34, 31, 43, 54, 31, 40, 36, 53, -15, 14, 29, 35, 12, 31, 41, 39, 39, 45, 15, 30, 15, 43, 15},
    {10, 12, 10, 4, 5, 14, -10, 10, 20, -2, -2, -2, 16, 16, 13, 31, -12, -21, -50, 1, -16, 5, -5, 4, -11, -2, 12, 15, 10, 38, 31, 16, 20, -6, -2, -2, 12, 20, 17, 42, 14, -41, 60, 56, 38, 16, 22, 14, 11, -20, 12, 27, 21, 8, -4, -13, 79, -5, 20, 29, 39, 41, 48, 30, 33, 42, 32, 39, 17, -15, 63, 3, 32, 26, 26, 42, 23, -24, 37, 29, 25, 0, 5, 63, 65, -4, 1, 18, 13, -10, -87, -24, 17, -9, -22, -28, -40, 54, 18, -11, 8, 3, -22, -27, -31, 1, 7, 1, -8, -15, -22, 32, -10, -26, -40, -43, -12, 7, -1, 13, 9, 19, 6, 11, 1, 56, 49, -18, 21, 2, 19, 11, 10, 10, 4, 8, 3, 18, -2, 73, 10, 25, 12, 11, 27, 33, 26, 22, 10, 14, 20, 16, 11, 57, 5, -2, 24, 31, 31, 27, 23, 32, 31, 43, 19, 11, 39, 31, 16, 5, 52, 34, 25, 9, 7, 16, 32, 28, 2, 5, 57, 27, 13, 5, -10, 18, 24, 10, 26, 28, -14, 11, 6, -12, 14, 10},
    {11, 15, 24, 45, 50, 51, 113, 108, 119, 87, 55, 48, 13, 14, 10, 12, 37, 78, 23, 30, 42, 53, 25, 49, 16, -6, -6, 34, 18, 14, 26, 9, 2, 7, 6, 3, -5, 27, 11, 24, -13, 18, 61, 7, 6, 30, 19, 29, 40, 42, 21, 11, 15, -13, 19, 11, 61, 13, 17, 34, 38, 45, 59, 34, -14, -11, -14, -13, -10, -3, 58, 54, 19, 27, 17, 15, 12, -24, 4, 2, -5, -8, -21, 30, 5, 11, 2, 9, 6, -6, -8, 16, 8, 4, -3, 19, 25, 15, 50, -27, -16, -8, 12, 27, 12, 7, 10, -3, 21, 40, 71, -40, 47, 26, 21, 1, 7, 26, 20, 6, -14, 11, 26, 55, 54, -4, 56, 45, 10, 0, -17, -13, -24, 0, 17, 32, 45, 36, -4, -26, 42, 54, 24, -2, -12, -17, 9, 35, 30, 32, 34, 12, 22, -3, 20, 53, 57, 38, 16, 31, 24, 25, 21, 24, 26, 12, 5, 35, 14, 71, 88, 56, 50, 51, 24, 22, 33, 23, 28, 32, 72, 45, 12, 22, 35, 58, 60, 68, 76, 96, 101, 90, 95, 73, 36, 12},
    {16, 11, 25, 50, 65, 79, 71, 4, 66, 87, 77, 58, 11, 12, 14, 40, 51, 21, 40, 45, 38, 23, 29, 46, 28, 59, 4, 34, 14, -22, 16, 6, 23, 9, 21, 37, 43, 38, 18, -7, 8, 73, -34, -3, 11, 15, 13, 29, 34, 28, 41, 39, 27, 15, 25, -18, 32, 4, 27, 28, 33, 21, 17, 18, 0, 15, 20, 2, 20, -2, 32, -3, 37, 39, 26, 11, 23, 11, -13, 3, 19, 25, 24, -3, 5, 39, 50, 38, 30, 31, 19, 17, 20, 8, 18, 60, 45, -15, 11, -41, 15, 22, 21, 42, 17, 21, 13, 24, 17, 21, 30, -85, -14, -51, 4, 0, 40, 37, 6, 10, 19, 16, 10, 14, 27, -44, 51, -26, -20, 3, 29, 29, 4, 8, 20, 13, 11, 18, -16, -30, 44, -15, 18, 16, 34, 48, 48, 37, 9, 6, 5, -6, -11, -2, -15, 6, -2, 20, 27, 26, 43, 38, 18, -2, -21, -6, 1, -13, 13, 32, 12, 12, 10, 18, 16, 21, 11, 16, 5, -2, -7, -21, 14, 47, 6, 24, 49, 39, 63, 41, 43, 39, 42, -2, 42, 15},
    {16, 13, 18, 46, 55, 69, 46, 10, 79, 76, 64, 50, 14, 10, 13, 34, 53, 40, 80, 106, 58, 61, 58, 37, 19, 64, 40, 29, 11, 14, -7, 28, 57, 25, 7, 2, -1, 0, 24, 38, 32, 85, 55, 23, 53, 20, 19, 27, 21, -12, -54, -13, -1, 24, 42, 21, 38, 55, 22, 5, 5, 30, 42, -9, -16, 16, 31, 28, 31, 20, 39, 48, 3, 22, 1, 15, 32, 8, 2, 28, 20, 33, 33, 42, 45, 10, -3, -4, -2, 2, 43, 1, 2, 16, 13, 6, 82, 55, 36, 22, -13, -10, -2, 20, 30, 4, 5, 6, -6, -4, 88, 38, 13, 76, 11, -9, 13, 41, 45, 9, 9, 18, 1, 24, 58, 38, 35, 36, 46, 4, 32, 40, 47, 7, 14, 20, 1, 25, 23, -7, 10, 40, 0, 24, 42, 49, 44, 23, 10, 23, 16, 23, -25, 52, -7, 18, -3, -25, 14, 32, 38, 21, 14, 4, -8, 23, -5, 33, 16, -7, -45, -31, -27, 7, 22, 30, 22, -19, 4, 20, 16, 7, 10, -3, 2, -26, -16, 3, -17, -51, 10, -3, -42, -20, 12, 10},
    {14, 9, 22, 47, 77, 26, 12, -7, 31, 91, 78, 56, 13, 15, 10, 8, 61, 28, 52, 52, 4, 12, 2, 41, 48, 46, 33, 16, 4, 4, 31, 35, 53, 22, 20, -11, -26, -14, -22, -56, 11, 31, -27, 35, 27, 24, 39, 21, 26, 22, 17, 10, -2, -19, 23, 36, 8, 13, 45, 42, 41, 9, -17, 0, -4, 1, 13, 18, 42, 34, 2, 2, 54, 36, 35, 9, -19, -4, 9, 18, 17, 36, 34, -29, 37, 40, 30, 17, 24, 32, -23, 1, 16, 20, 32, 33, 25, -27, 4, 41, 14, 29, 12, 30, -9, 2, 34, 45, 40, 30, -27, 1, -14, -7, 6, 18, -10, -15, 16, 37, 52, 22, 15, 14, 24, 33, 52, -8, 6, -6, -37, -17, 37, 41, 16, 13, -1, -3, 24, 72, 10, 6, -21, -30, -3, 13, 33, 34, 12, -2, -15, -18, 29, -24, 1, 0, -15, -15, 12, 13, -2, -3, 11, 1, -7, -15, 7, -36, 10, -5, 4, 8, -12, 2, 1, 11, 29, 25, 41, 17, 17, 5, 12, 24, -16, 11, 60, 16, 34, 61, 46, 37, 56, 61, 40, 14},
    {15, 10, 7, -6, -16, -41, -50, -2, -34, -41, -15, -19, 10, 13, 12, 35, 27, 18, 3, 10, 31, 9, 13, -32, -36, -20, 40, -17, 28, 50, 53, 30, 19, 18, 32, 30, 14, 0, -7, -8, -18, -35, 74, 63, 37, 22, 15, 20, 21, 8, 25, 13, -16, -37, -47, -19, -3, 61, 43, 17, 4, -8, 5, 31, 63, 29, -53, -43, -48, -16, 63, 45, -4, -18, -15, 8, 21, 57, 63, -6, -86, -40, -13, 36, 56, 34, -35, 6, 28, 24, 27, 45, 17, -38, -16, -1, 62, -8, 9, 69, 2, 7, 29, 5, 19, 46, 13, -2, 27, 40, 18, 56, 70, 5, -35, 4, 29, -6, 20, 25, -9, 4, 17, 30, 32, 7, -7, 9, 3, 14, 23, -8, 7, 2, 7, 5, 22, 26, 1, 53, -11, 25, -6, 11, 16, 10, -8, 15, 6, 10, 0, 2, 3, 19, 50, 63, 11, 25, 13, 14, 6, 7, 9, 29, 10, -10, -6, 46, 12, 8, 39, 37, 29, 28, 13, 8, -7, 11, -2, -20, -27, 49, 16, -5, 8, -15, -3, 3, -32, -20, -19, 10, -31, -17, 22, 15},
    {11, 13, 15, 2, 27, 52, 58, 8, -27, 77, 75, -6, 11, 10, 15, 34, 66, 50, 3, -16, 10, 51, 17, 28, 31, 83, 1, 15, 4, 27, 26, 12, -15, 7, 24, 15, 10, 24, 35, 37, 59, 52, -23, -26, 29, 10, 13, -1, 11, 36, 8, 7, 16, 32, 45, 82, -49, 24, 17, 20, 2, -10, 11, 2, -16, -5, 9, 1, 14, 20, -27, -12, 0, 12, 7, 5, -7, -18, -7, -8, -14, -21, -23, 7, 8, -24, -5, 23, 29, 38, 34, 28, 32, 18, 3, -6, -21, -42, 14, 1, 17, 42, 47, 32, 29, 53, 45, 1, -11, 3, 23, 23, -28, 24, 7, 14, 2, 19, 36, 43, 23, -1, 20, 25, 20, -19, -42, 37, 39, 2, -14, -6, 16, 35, 16, 17, 18, 18, 12, -29, -1, 26, 19, 10, -2, -14, -2, 34, 38, 29, 25, 40, 20, -17, 23, 20, 42, 6, 6, 17, 15, 22, 32, 46, 56, 50, 34, 50, 11, 14, 22, 25, 36, 26, 18, 29, 30, 40, 33, 36, 6, -9, 12, 14, -15, -16, -14, -16, -4, -3, 5, -21, -19, -24, -18, 10},
    {14, 12, 9, 11, 21, -35, -34, -10, 55, -3, -1, 27, 11, 15, 11, 61, 30, 41, 59, 40, 31, -2, 22, 32, 10, -22, 42, -4, 16, 51, 23, 37, 14, 25, 28, 29, 15, 25, 28, 25, -9, -21, 64, 32, 1, 7, 41, 47, 47, 75, 56, 33, 19, 39, 1, -16, 47, 12, 4, 16, 28, 27, 38, 12, 10, 23, 8, 39, -4, 24, 31, -9, -12, -21, -53, -69, -128, -63, 7, 15, 8, 7, -11, 7, -17, -41, -61, -42, -39, -29, -1, 48, 22, 24, 6, -15, -6, -6, -16, -7, 0, 26, 15, 17, 37, 29, 22, 18, -7, -9, 16, 16, 54, 17, 59, 27, 23, 14, 18, 30, 24, 5, -1, -15, 6, 16, 28, -3, 18, 29, 27, 26, 25, 27, 18, 11, 6, -5, 31, 74, 5, 27, -1, 9, 3, 15, 10, 10, 12, 26, 27, 15, 33, 1, 35, 39, 23, -2, -1, 5, 5, 9, 18, 13, 21, 23, 37, -10, 15, 40, -8, 3, 23, 23, 7, 22, 18, -6, 25, 12, 60, 36, 11, 7, -2, 30, 30, 40, 0, 37, 8, 2, -24, 22, 31, 13},
    {11, 14, 18, 24, 25, 57, 41, 39, 79, 53, 61, 50, 15, 10, 16, 50, -10, -4, 15, -14, 10, 6, 17, 4, -6, 27, 37, 8, 14, -21, -3, -1, 15, 18, 20, 7, 10, 9, 19, 20, 2, 19, -14, -27, -19, 1, 0, 19, 19, 10, 21, 28, 28, 27, 22, 0, 62, 0, -47, 3, 20, 18, 13, 19, 1, 1, 10, 3, -89, 18, 36, -43, -14, -2, 13, 13, 1, 26, -9, -34, 9, -7, -4, -8, 29, 28, 19, -43, 3, -24, -4, 29, -6, -15, -8, -9, 40, 33, -8, 54, -12, -15, -5, 5, 41, 40, 5, -4, -17, 14, 37, 37, 24, 30, -7, 19, 24, 44, 54, 29, -17, -19, 29, 18, 36, 69, 2, 37, 11, 10, 39, 42, 49, 0, 9, 16, 31, 29, 54, 103, -14, 6, 13, 19, 32, 28, 17, 11, 11, 18, 25, 24, 37, 40, 38, -17, 37, 11, 17, 17, 9, -7, -11, 15, 36, 1, -20, 4, 14, -46, 7, -7, -10, 18, -2, -21, -61, -46, -43, -27, 49, 48, 12, -3, 31, 54, 49, 25, 7, -13, -37, -32, -3, 18, 10, 16},
    {14, 13, 12, -12, -11, -1, 14, 22, 18, -61, -41, -18, 10, 10, 13, 20, 10, 10, 10, 6, 2, -6, 2, -22, 18, 22, 63, 25, 19, 16, -1, 7, 2, 10, 18, 23, 14, -1, 1, -12, 29, 25, 31, 43, -30, -1, 7, 22, 32, 24, 30, 33, 32, 22, 4, 3, 35, 21, 7, 41, 37, 38, 37, 53, 40, 32, 21, 16, -11, 18, 29, 48, 44, 39, 41, 34, 35, 48, 13, 26, 39, 39, 14, 52, 5, 70, 53, 18, -12, -24, 1, 14, 18, 19, 29, 10, 0, 51, 13, 16, -2, -7, -11, -4, 4, 0, 10, 34, 29, -7, -15, -25, 43, 7, 9, 5, 12, 19, 15, 4, 17, 15, 5, -1, 14, -9, 71, -15, -5, 12, 11, 17, 13, 11, 17, 26, 8, 15, 29, 25, 43, -28, 31, 27, 9, -5, 9, 8, 5, 14, 9, 8, 57, -49, -4, 9, 10, 33, 21, 7, 4, 2, -1, -4, -9, 26, 48, -41, 13, 61, 35, 22, 26, 29, 17, 16, 13, 25, 35, 5, 8, -20, 15, 41, -2, 47, 115, 83, 86, 83, 83, 82, 115, 81, 46, 16},
    {13, 9, 20, 47, 64, 53, 86, 38, 74, 96, 78, 55, 10, 13, 14, 74, 30, 13, -2, 38, 18, 17, 11, 40, 55, 59, 22, 43, 7, -1, -26, -11, 15, 32, 22, 17, -3, 3, 19, 39, 58, 28, -32, -48, -23, -13, 17, 36, 29, 23, 19, 13, 14, 28, 67, 35, -26, -32, -34, -5, 27, 37, -4, -7, 24, 9, 13, -14, 61, -44, -31, -61, -35, 16, 45, 28, -23, -9, 20, 11, 4, -5, 25, 12, 3, -42, -28, 33, 42, 25, -16, 5, 22, 29, 16, 11, -24, -65, 22, -27, -11, 26, 43, 35, 9, -11, 20, 25, 21, 6, -32, -20, 7, -5, -7, -1, 20, 37, 22, -11, 29, 25, 19, -6, -22, -35, -21, 43, 12, 9, 14, 26, 28, 1, 3, 20, 18, -13, -29, -37, 41, 50, 33, -21, 9, 13, 27, 7, 15, 22, 0, -10, 26, -5, 8, 16, -12, -15, -14, 10, 19, 37, 40, 21, 2, 18, 34, 40, 15, 49, 37, 10, 22, 25, 4, 11, 23, 28, 20, 60, 29, -15, 12, 20, 52, 46, 62, 48, 25, 15, 27, 21, 1, -10, 47, 16},
    {13, 11, 21, 43, 65, 33, 13, 6, 14, 82, 69, 51, 11, 16, 12, 11, 37, 20, 46, 35, 22, 30, 10, 35, 21, 79, 15, 28, 8, 11, 19, -1, -8, 6, 10, 16, 35, 33, 27, 14, 34, 58, -33, -2, 1, -22, -17, -4, -4, 4, 2, -2, -13, -10, 29, 35, -45, -26, -22, -6, -2, 11, 17, -2, -4, -10, 7, -25, -5, -1, -46, -25, 16, 22, 3, 19, 17, -6, -6, 6, 3, -16, 29, 18, -34, -27, -4, 23, 16, 27, 35, 23, 4, 10, 15, 12, 30, 20, -13, 13, 3, 26, 25, 27, 36, 46, 28, 7, 10, 5, 19, 49, -26, 41, 24, 24, 14, 14, 21, 41, 25, 21, 23, 16, 21, 29, -47, 17, 40, 36, 22, 17, 19, 38, 31, 21, 4, 30, 27, 2, -22, 37, 27, 31, 36, 35, 28, 48, 38, 37, 29, 44, 39, 12, 14, 49, 47, -9, 14, 9, 2, -10, 1, 25, 33, 25, 4, 5, 13, -31, -3, -27, -23, -33, -29, -21, -4, 11, -4, 13, 33, 24, 12, 30, 36, 13, -15, 5, -1, 5, 15, -12, -19, -12, -16, 11},
    {10, 10, 15, 29, 13, 33, 29, 6, 50, 30, 29, 39, 13, 14, 16, 44, -13, -31, -15, -13, -14, -33, -27, -6, -8, 31, 57, 46, 11, 11, -22, 15, 20, 16, 8, 7, 8, 18, 10, -10, 18, 49, 11, 40, 22, 28, 25, 3, 6, 17, 41, 51, 31, 18, -4, 7, 77, 38, 41, 36, 20, 31, 50, 41, 37, 37, 33, 31, 9, 17, 59, 29, 38, 30, 32, 46, 56, 21, 1, 22, 16, 22, 29, 60, 59, 3, -24, -8, -5, -21, -30, -14, -2, 15, 7, 3, 4, 9, 24, -26, -32, -10, -16, -3, 4, 8, -10, 10, 12, -7, 7, 16, -24, -22, -19, 7, 27, 20, 3, 4, 5, -6, 7, 4, 24, 60, 52, -39, -14, 17, 21, 14, -6, 3, 26, 13, 14, 24, 10, 50, 50, 5, 14, 28, 21, 0, 14, 21, 23, 17, 15, 16, 11, 42, -17, 6, 8, 31, 34, 35, 38, 21, 12, 3, -15, 29, 28, -41, 14, -13, -6, -7, 10, 28, 33, 32, 32, 47, 35, 30, 84, -6, 16, 34, -20, 7, 95, 74, 51, 51, 35, 52, 81, 66, 4, 15},
    {10, 11, 15, -3, 3, -4, 2, 41, -39, -8, -17, -8, 15, 14, 13, 10, -30, -26, -58, -63, -38, -35, -44, -17, -49, -22, -15, 8, 10, 53, -22, -38, -42, -18, -5, -14, -26, -16, -37, -22, -20, -17, -46, 10, 33, -16, -42, 1, 16, 10, 6, 17, 24, 25, 5, 19, -37, -41, 29, 0, -15, -5, 41, 31, 22, 44, 21, 27, 52, 7, -16, -13, -35, -34, -2, 14, 53, 39, 15, 18, 30, 36, 102, 48, 37, 61, -42, 10, 29, 17, 43, 43, 21, -15, -15, -38, 14, 39, 44, 16, -3, -1, 16, 12, 28, 40, 22, 5, -12, -68, -48, -39, -12, -5, 39, -5, -5, 22, 25, 28, 0, -12, -2, -43, -28, -13, 0, -91, -23, 10, 4, 5, 36, 12, -15, -21, -23, -38, 3, 58, 16, -84, -35, 1, 2, 5, 15, -2, 1, 0, -18, -25, 13, -18, 34, -35, -6, 13, 20, 22, 25, 14, 5, -2, -30, -30, 36, 29, 10, -41, 8, -20, 1, -6, 2, 3, 0, 15, -35, 19, 20, 18, 14, 42, 39, 36, 32, 40, 37, 75, 55, 29, 44, 51, 14, 15},
    {11, 16, 1, -22, -30, 8, -6, 21, -35, -44, -38, -28, 11, 11, 11, -32, -52, -14, -25, -18, 4, 30, 12, -15, -12, 14, 25, -3, 10, 30, 74, 49, 39, 7, 12, 12, 19, 19, 25, 36, 21, -34, 3, 65, 34, 25, 7, 15, 16, -7, 14, 16, 27, 25, 8, -24, 75, 42, 24, 10, 20, 18, 8, -9, 19, 33, 22, 15, -7, -8, 79, 19, 20, 16, 9, 14, 19, -53, 18, 41, 33, 24, -30, -58, 84, -6, 3, 26, 22, 26, 13, -52, 8, 10, 20, 33, -12, -26, -12, 24, 27, 48, 38, 10, -16, -7, 16, 18, 37, 44, -13, 105, -8, 7, 13, 33, 39, -5, -34, 31, 49, 57, 46, 31, -7, 77, 65, 23, 29, 16, 27, -21, -22, 42, 73, 41, 31, 13, 2, 41, 64, 35, 12, 16, 18, 14, 5, 4, 25, 14, 17, 14, -4, 35, 11, 6, -4, 26, 10, 18, 6, -2, -1, -10, 3, -14, -11, -19, 15, -6, 34, 20, 18, 8, 11, -3, 13, -9, -3, 1, 11, 33, 15, 2, -10, 2, 24, 7, 3, 15, 29, 7, 11, 34, 22, 15},
    {10, 13, 10, -2, -3, -37, -36, -15, -40, -45, -38, -29, 15, 16, 17, -36, -39, -40, -56, -15, -92, -36, 20, 36, 25, 11, -30, -23, 20, -11, -7, -15, -24, 10, 8, 5, 36, 38, 30, 21, 17, 0, -2, -27, -1, 13, 14, 13, 2, 1, 23, 49, 43, 20, 11, 8, -57, 36, 0, 20, 39, 20, 2, -32, 2, 75, 54, 12, 7, 30, -27, -4, -7, 11, 18, 11, -5, -36, 27, 68, 42, 11, -29, -14, 13, -19, 21, 13, 1, -3, 4, 6, 36, 55, 56, 17, -18, -11, 26, 17, 13, 0, 13, 7, 26, 22, 50, 31, -8, -13, -24, 40, 43, 21, -3, 0, 5, 10, 27, 10, 13, -25, -18, 2, -3, 50, -34, 56, -10, 2, 17, 5, 10, 18, -7, -3, -3, -2, 9, 49, 32, 60, 18, 20, 19, 13, 16, 21, 21, 23, 17, 16, -6, -19, 37, -6, -1, 32, 22, 21, 13, 10, -1, 12, 44, 25, 4, 23, 13, -11, -17, 12, 0, 10, 2, 20, 10, 5, 3, 10, 4, 10, 13, 32, 45, 31, 2, -1, 4, 36, -10, -4, 6, -15, 27, 14},
    {15, 14, 13, 10, 6, 15, 23, -12, 48, -20, -49, -2, 13, 12, 16, 14, 22, -6, 4, 28, 36, 37, 34, 20, 14, -23, 34, 42, 17, 30, 18, 42, 31, 45, 34, 27, 30, 22, 6, -4, -24, -9, 79, 72, 46, 53, 26, 22, 28, 14, 5, 19, 18, 10, 9, 18, 69, 28, -16, -19, -31, -24, -35, 1, 30, 43, 35, 34, 31, -1, 52, 14, -73, -48, -40, -10, 9, 9, 11, 23, 27, 24, 44, 43, -4, 11, -3, 29, 44, 56, 50, 5, -12, 14, -10, -24, -15, 53, 26, 37, 57, 49, 21, 13, 18, 8, 7, 10, -3, 6, 40, 62, 51, 51, 55, 15, -17, -19, -17, 5, 29, 18, 27, 23, 16, 66, 67, 43, 44, 22, 16, 16, 16, 25, 26, 1, 12, 7, 15, 14, 46, 66, 22, 5, 13, 16, 29, 7, 1, -2, 1, -6, -27, 44, -12, 68, -4, 10, 10, 14, 6, 12, 20, 19, 9, 16, 2, 5, 15, 66, 46, 32, -2, 23, 15, 9, 19, 2, 29, 18, 21, 4, 13, -12, -6, -2, -24, 11, 25, -28, 20, 9, 7, 34, 25, 14},
    {11, 16, 14, 28, 15, 45, 38, 46, 57, 42, 39, 43, 11, 16, 10, -6, -36, 12, 0, 30, 74, 58, 35, 1, -5, -25, 27, -13, 7, 34, 12, 12, 15, 17, 22, 36, 27, 14, 7, 25, -33, 15, 60, 59, 21, 18, 8, 16, 32, 38, 29, 23, 13, 19, 12, -20, 40, 19, 25, 6, 8, -16, 7, 43, 34, 10, 6, 25, 8, -27, 27, 22, -3, 4, -11, -7, 10, 1, -7, 10, -1, 26, 15, 54, 58, 47, 2, 20, 27, 33, 1, -27, -9, 2, -8, -6, 3, 25, 19, 39, 20, 20, 21, 13, -16, -11, 0, -7, 22, -8, 7, 69, -4, -4, 12, -1, 2, 4, -6, -16, -10, 4, 14, -9, -16, 49, 52, -8, -11, 4, 0, -24, 9, 5, 3, 12, 18, 5, -25, 42, 46, 44, 3, 16, 25, 32, 63, 59, 28, 20, 20, 33, 40, 99, 44, 37, 31, 19, 40, 52, 47, 48, 43, 27, 5, 56, 53, 58, 15, 8, 42, 31, 33, 12, 27, 33, 43, 56, -6, 37, 77, 53, 11, 9, -27, -14, -8, -5, 7, 29, 21, 18, 40, 40, 13, 12},
    {15, 12, 25, 46, 41, 1, 5, 27, 37, 79, 72, 50, 12, 10, 9, 49, 43, 32, 45, 35, 31, 27, 38, 40, 23, 34, 8, 7, 20, 30, 80, 26, 28, 3, 10, 15, 25, 18, 18, 13, -9, 68, 79, 32, 53, 7, -5, -14, -9, 20, 18, 5, 6, 11, 23, 22, 80, 39, 47, 15, 8, -4, -5, 21, 27, 3, 9, -1, -28, 68, 68, 15, 25, 21, 19, -27, -5, 44, 9, 5, 9, -2, -16, 12, -1, -5, -6, -6, -7, -24, 42, 39, 10, 3, 11, -16, 35, 22, 30, 0, -10, -16, -20, 8, 59, 39, 0, 24, 24, 13, 43, -19, 71, 28, 11, 26, 16, 40, 65, 34, 17, 28, 27, 24, 46, -5, 9, 7, 23, 20, 36, 31, 30, 28, 39, 26, 21, 12, 22, 58, -23, 11, -11, 40, 32, 12, 19, 30, 21, 24, 20, -10, -21, 41, 43, 23, 43, 20, 16, 13, 17, 18, 7, 5, 0, -34, -6, 63, 14, 76, -9, 9, 9, 5, -4, -5, -12, -13, -5, -47, -29, 48, 14, -21, -20, -18, -26, 7, -65, -37, -4, -15, -58, -47, -4, 16},
    {13, 12, 4, -18, -29, -49, -39, 5, -46, -49, -38, -15, 11, 16, 15, -1, -6, -31, -14, -30, 9, 19, 32, 43, 47, 5, 29, 32, 20, 19, -1, 13, 28, 27, 24, 19, 16, 18, 27, 26, 50, 36, 78, 7, -7, 11, 14, 13, 12, 15, 18, 25, 38, 29, 43, 91, 5, 10, 8, 26, 19, 25, 24, 22, 16, 19, 19, 35, 64, 28, 7, 29, 10, -1, 19, 34, 42, 26, 16, 14, -13, -25, -46, 29, 59, 34, 13, 3, -11, 6, 9, 29, 32, 10, -20, -49, -101, -28, 70, 42, 27, 10, -8, -27, -33, 7, 27, 17, 23, 16, 3, 20, 41, 18, 23, 39, 30, -2, -26, 22, 33, 40, 24, -1, -21, -12, 47, 27, 25, 33, 35, -8, -9, 47, 38, 40, 31, -28, -8, -30, -24, -14, -16, -14, -8, -19, -3, 34, 38, 31, 26, -18, -33, -32, 18, -22, -11, -31, -28, -6, -1, 24, 29, 36, 28, -46, -17, 18, 12, 65, 4, 12, 37, 32, 29, 27, 29, 23, 13, -11, -44, 7, 14, 3, -25, 10, 25, 18, 34, 33, 41, 38, 35, 42, -4, 13},
    {13, 16, 15, -6, -18, -47, -37, 43, -16, -54, -34, -19, 14, 16, 15, -23, 38, 56, 81, 34, 13, 29, -4, -8, 14, 12, 49, 12, 16, 2, 40, 45, 31, 68, 35, 23, 23, 19, 20, 20, 30, 57, 46, -8, 32, 31, 22, 22, 21, 14, 19, 18, 27, 8, 49, 81, 5, -18, 29, 38, 28, 28, 11, 4, -8, -7, 5, 19, 9, 43, -33, 14, 36, 15, 13, 5, 31, 12, 6, 0, -17, -42, -15, 71, -31, 17, 24, 1, 16, 28, 35, 1, 10, 20, 20, 5, -37, 63, 35, -27, -76, -38, -20, 2, 20, 13, 10, 8, 18, 27, 19, 50, 47, 57, -43, -80, -82, -67, -31, 4, 14, 26, 28, 33, 35, -9, -19, 105, 29, 9, -12, -18, -32, 20, 28, 27, 32, 28, 51, -37, -18, 32, 58, 60, 66, 59, 42, 27, 23, 25, 19, 49, 10, 26, 14, 32, 45, 30, 46, 35, 31, 21, 28, 20, 10, -2, -51, 61, 16, 34, 23, 42, 10, 1, 19, 6, 22, -25, -37, -24, 11, 44, 16, 29, 58, 41, 14, 21, 8, 24, 26, -13, 2, 9, 25, 16},
    {15, 14, 0, -21, -4, -49, -29, -5, 12, -51, -43, -28, 10, 16, 16, -59, 16, 32, 7, 50, 28, 20, 5, -26, -30, 3, 11, -17, 19, 29, 19, 39, 13, 41, 32, 29, 43, 19, 5, -1, 21, 41, 34, 60, 32, 33, 37, 10, 20, 30, 26, 26, 22, 33, 25, 9, -36, 52, 39, 20, 8, -3, 31, 28, 5, 9, 23, 31, 4, 30, -46, 39, 12, 10, -9, 3, 36, -6, -18, 9, 14, 43, -2, 6, -17, 10, 8, -13, -6, 7, 33, 7, 11, 15, 25, 31, 24, 23, 12, 19, -12, 4, -1, 14, 36, 41, 31, 26, 19, -12, 9, 109, 39, 49, 3, 13, 16, 41, 47, 19, 27, 35, 28, 19, 12, 64, -36, 17, 34, 27, 10, 26, 20, 11, 18, 21, 34, 30, -2, 7, -11, 24, 18, 32, 9, 4, 5, 12, 11, 15, 20, 19, -33, 7, -8, 49, -18, 19, 20, 29, 18, 5, 25, 39, 28, 47, 2, -35, 15, 14, -19, 28, 17, 28, 17, 33, 25, 9, 18, 10, -12, -7, 13, 24, 47, 28, -7, 3, 12, -9, 11, 6, -13, -4, 30, 13},
    {14, 14, 6, -24, 17, 47, 54, 48, 68, -32, -57, -25, 15, 15, 13, 32, -3, -25, -1, 21, -10, 1, -16, -8, 30, 53, 55, 49, 5, 23, -34, 4, 21, 22, 9, 10, 16, 5, 27, 42, 61, 43, 11, 25, 32, 32, 37, 25, 10, -2, 3, 8, -1, 40, 43, 64, 64, 20, 23, 21, 25, 35, 17, -9, 23, 15, -4, 25, 106, 23, 57, -9, 16, 16, 30, 28, 9, -21, 13, 2, -9, 1, 64, 58, 83, 34, -2, 22, 23, 33, 9, -10, -8, 7, 22, 28, 69, 60, 41, 9, 20, 31, 24, 19, -1, 13, 11, 25, 13, 50, 87, 60, -4, 26, 20, 25, 31, 6, 16, 32, 28, 10, 19, 15, 47, 49, 36, 2, 32, 23, 8, 12, 34, 24, 3, 2, 14, 9, 13, -3, 46, 32, 12, -8, 21, 33, 25, 6, -5, -4, 19, 9, -36, 47, -14, 41, 3, 15, 34, 29, 20, 24, 11, 5, 34, 23, -12, 13, 13, 14, -7, -1, -3, -5, 22, 30, 19, -10, -5, 18, 11, -2, 10, 7, -23, -52, -50, -30, -14, -35, -22, -18, -26, 0, -21, 15},
    {13, 12, 22, 51, 59, 41, 59, 12, 36, 85, 75, 55, 14, 16, 10, 43, 56, 39, 29, 22, 28, 19, 36, 34, 41, 16, 9, 31, 23, 11, 29, 28, 46, 10, 11, 25, 11, 16, 29, 29, 31, 47, 84, 1, 30, 25, 16, 14, -1, -11, 3, 12, 7, 23, 26, 5, 72, 34, 19, 26, 30, 14, 17, 8, 27, 24, 25, 14, 45, 28, 80, 47, 17, 4, 31, 38, 48, 31, 12, 16, 17, 22, 3, 31, 86, 51, 29, 25, 36, 50, 23, 13, 21, 17, 6, 22, 16, 1, 66, 1, 25, 32, 36, 4, -13, 5, -5, 14, 18, 49, 27, -60, 51, 10, 26, 21, 16, -10, -6, 3, -1, 7, 30, 31, 34, -39, 68, 23, 16, 20, 20, 2, 15, 3, 10, 24, 36, 5, 14, -4, 44, -20, -3, 16, 18, 20, 27, 10, 13, 31, 15, -23, -46, 35, 3, -13, 8, 13, 0, 0, 10, 25, 35, 20, -6, -38, -57, 11, 16, 88, 15, 9, 15, 22, 34, 30, 5, -7, -34, -27, -52, -28, 15, -14, -32, -16, 5, 16, 15, -5, 9, 18, -5, 26, -21, 14},
    {12, 15, 15, 14, 32, 65, 62, 42, 69, -7, 4, 3, 14, 14, 12, 8, 12, 49, 38, 52, 26, 5, -6, -13, -5, -5, -3, 9, 12, 23, 22, 8, 7, 12, -2, 4, 22, 27, 9, 8, -10, 34, -32, 46, 23, -18, -3, -1, -9, 10, 16, 20, 13, 21, 1, -6, -21, 17, 3, 3, 1, 8, -6, 18, 41, 28, 24, -6, -20, -3, -61, 21, 22, 21, -1, 9, -2, -1, 21, 14, 9, -3, -8, -31, -30, -3, 20, 3, 5, -17, 3, -19, -11, 20, 23, 32, 18, 6, -25, 27, 44, 41, 20, -3, 15, -4, 8, 34, 38, 19, 45, 109, 8, 40, 45, 34, 45, 39, 27, 0, 30, 48, 26, 23, 27, 62, 29, 32, 8, 42, 54, 62, 48, 30, 45, 56, 17, 19, 11, 8, 56, 54, 20, 25, 21, 27, 26, 32, 41, 37, 25, 14, 37, 35, 39, 51, -4, -9, -4, 10, 6, 9, 9, 11, 16, 12, 24, -5, 14, -34, -28, -21, -11, 5, 5, -10, -22, 4, 16, 42, 51, 32, 12, 25, 53, 56, 36, 24, 53, -3, -22, 4, 43, 10, 46, 13}};

// Layer 1 Biases (int8) - Placed in PROGMEM
static const int8_t L1_BIASES_INT8[L1_OUTPUT_SIZE] = {58, 28, 31, -4, -25, 54, -71, -24, -10, -32, 2, 12, -19, 67, -97, 41, -69, 19, 79, -49, 127, 52, -72, 26, 22, -22, 21, -128, -37, 56, -22, -92};

// Layer 2: Linear(32, 10)
#define L2_INPUT_SIZE 32 // Should match L1_OUTPUT_SIZE
#define L2_OUTPUT_SIZE 10

// Layer 2 Weight Quantization Parameters
#define L2_WEIGHT_SCALE 0.02030251f
#define L2_WEIGHT_ZERO_POINT 64

// Layer 2 Bias Quantization Parameters
#define L2_BIAS_SCALE 0.00319770f
#define L2_BIAS_ZERO_POINT -9

// Layer 2 Weights (int8) - Placed in PROGMEM
static const int8_t L2_WEIGHTS_INT8[L2_OUTPUT_SIZE][L2_INPUT_SIZE] = {
    {-17, 71, 110, 105, 63, 92, 57, 25, 109, 83, 65, 34, 6, -8, 9, 34, 63, 81, 32, 77, 25, 89, 68, 76, 123, 34, -22, -41, 54, 90, 81, 86},
    {17, 27, 80, 33, 4, 39, 30, 102, 95, 30, 64, 2, 95, 84, 59, 111, 55, -30, 71, 15, 101, 103, 100, -17, 112, 82, 101, 100, 35, 13, 48, 59},
    {34, 36, 95, 101, 49, -16, 101, 114, 46, 44, 80, 78, 73, 56, 92, 104, 55, 21, 91, 106, -22, 94, 66, 90, 104, 63, 13, 46, 79, 74, 26, 82},
    {107, 40, 39, 35, 98, 97, 88, 70, 94, 43, 79, -6, 98, 57, 96, -21, 73, 33, 47, 53, 4, 21, 80, 107, 67, 81, 79, 96, 82, 43, 86, 62},
    {83, 89, 53, 80, 58, 40, 7, 66, -48, 34, 73, 69, 113, 93, -128, 51, 22, 80, 56, -53, 56, 95, 102, 14, -21, 35, 87, 21, 77, 82, 49, 83},
    {101, 77, -40, 42, -18, 110, 52, 64, 94, 60, 76, 27, -59, 75, 81, 47, 57, 90, 75, 72, 108, 8, -45, 71, 51, 59, 92, 117, 37, 83, 80, 52},
    {-55, 55, 18, 79, 102, 98, 18, 82, 98, 96, 77, 126, -17, 92, -33, 74, -23, 94, 90, 45, 32, 62, -4, 20, 73, 77, 25, -60, 51, 74, 74, 60},
    {61, 38, 78, 104, 94, -28, -2, 112, 55, 60, 52, 87, 79, 10, 127, 110, 76, 39, 2, 85, 64, 119, 52, 95, 53, 86, 97, -6, 34, 74, 92, 6},
    {64, 80, 60, -63, 28, 68, 101, 1, 9, 97, 82, 89, 53, 85, 37, 18, 80, 58, 79, 79, 51, 15, 60, 28, -12, 63, 60, 26, 93, 81, 80, -7},
    {70, 78, 86, 62, 86, 69, 108, -42, 53, 79, -51, 65, 65, 55, 7, 61, 84, 91, 49, 60, 113, 62, 78, 31, -8, -37, 58, 96, 67, 40, 36, 106}};

// Layer 2 Biases (int8) - Placed in PROGMEM
static const int8_t L2_BIASES_INT8[L2_OUTPUT_SIZE] = {-73, 50, -11, -128, 22, 127, -37, -13, 62, 10};

// Output Logits Activation Quantization Parameters
#define OUTPUT_LOGITS_SCALE 0.26606685f
#define OUTPUT_LOGITS_ZERO_POINT 41
